<?xml version="1.0"?>
<opencv_storage>
<my_svm type_id="opencv-ml-svm">
  <svm_type>C_SVC</svm_type>
  <kernel><type>RBF</type>
    <gamma>5.0625000000000009e-001</gamma></kernel>
  <C>6.2500000000000000e+001</C>
  <term_criteria><epsilon>9.9999999747524271e-007</epsilon>
    <iterations>2147483647</iterations></term_criteria>
  <var_all>70</var_all>
  <var_count>70</var_count>
  <class_count>2</class_count>
  <class_labels type_id="opencv-matrix">
    <rows>1</rows>
    <cols>2</cols>
    <dt>i</dt>
    <data>
      0 1</data></class_labels>
  <sv_total>44</sv_total>
  <support_vectors>
    <_>
      2.92699993e-001 2.99699992e-001 3.02599996e-001 3.06699991e-001
      3.09799999e-001 3.13600004e-001 3.15800011e-001 3.15400004e-001
      3.17000002e-001 3.18199992e-001 3.17699999e-001 3.18899989e-001
      3.18199992e-001 3.17400008e-001 3.17499995e-001 3.16300005e-001
      3.17099988e-001 3.17200005e-001 3.13499987e-001 3.14200014e-001
      3.12700003e-001 3.12099993e-001 3.12999994e-001 3.16399992e-001
      3.15699995e-001 3.14700007e-001 3.13800007e-001 3.15899998e-001
      3.12799990e-001 3.08800012e-001 3.08299989e-001 3.07300001e-001
      3.03499997e-001 3.03799987e-001 3.00700009e-001 2.99299985e-001
      2.96799988e-001 2.95300007e-001 2.95500010e-001 2.94499993e-001
      2.94000000e-001 2.91000009e-001 2.87800014e-001 2.86599994e-001
      2.85800010e-001 2.84299999e-001 2.81500012e-001 2.78899997e-001
      2.79599994e-001 2.78699994e-001 2.78400004e-001 2.76400000e-001
      2.78800011e-001 2.82999992e-001 2.78499991e-001 2.76499987e-001
      2.75200009e-001 2.70999998e-001 2.68900007e-001 2.68400013e-001
      2.65700012e-001 2.63799995e-001 2.61700004e-001 2.57699996e-001
      2.56099999e-001 2.55299985e-001 2.53600001e-001 2.50299990e-001
      2.45900005e-001 2.46900007e-001</_>
    <_>
      2.90699989e-001 2.99699992e-001 3.02599996e-001 3.08299989e-001
      3.12000006e-001 3.12900007e-001 3.17200005e-001 3.17299992e-001
      3.17600012e-001 3.18899989e-001 3.19999993e-001 3.19900006e-001
      3.20400000e-001 3.19700003e-001 3.19099993e-001 3.19000006e-001
      3.17699999e-001 3.17200005e-001 3.16900015e-001 3.16399992e-001
      3.15499991e-001 3.16100001e-001 3.15299988e-001 3.20199996e-001
      3.18899989e-001 3.19599986e-001 3.19200009e-001 3.18800002e-001
      3.16300005e-001 3.13199997e-001 3.11699986e-001 3.10600013e-001
      3.07099998e-001 3.07000011e-001 3.04800004e-001 3.02700013e-001
      2.99899995e-001 2.99899995e-001 3.00399989e-001 2.97800004e-001
      2.96900004e-001 2.93500006e-001 2.91099995e-001 2.90699989e-001
      2.89000005e-001 2.87200004e-001 2.84399986e-001 2.82900006e-001
      2.82000005e-001 2.81699985e-001 2.80900002e-001 2.77799994e-001
      2.80900002e-001 2.81800002e-001 2.79199988e-001 2.76300013e-001
      2.77300000e-001 2.73499995e-001 2.71699995e-001 2.70200014e-001
      2.67699987e-001 2.64899999e-001 2.62800008e-001 2.59799987e-001
      2.58100003e-001 2.55899996e-001 2.54999995e-001 2.52400011e-001
      2.47299999e-001 2.46600002e-001</_>
    <_>
      2.80999988e-001 2.89099991e-001 2.92600006e-001 2.94800013e-001
      3.00399989e-001 3.00999999e-001 3.04300010e-001 3.05999994e-001
      3.06499988e-001 3.08699995e-001 3.08699995e-001 3.08299989e-001
      3.09100002e-001 3.09199989e-001 3.09599996e-001 3.07799995e-001
      3.08400005e-001 3.07999998e-001 3.07300001e-001 3.05099994e-001
      3.07599992e-001 3.05900007e-001 3.04899991e-001 3.10000002e-001
      3.08899999e-001 3.08899999e-001 3.08800012e-001 3.08299989e-001
      3.06600004e-001 3.03499997e-001 3.02399993e-001 3.00900012e-001
      2.98299998e-001 2.96999991e-001 2.95300007e-001 2.93900013e-001
      2.90600002e-001 2.91500002e-001 2.91099995e-001 2.90100008e-001
      2.89499998e-001 2.86900014e-001 2.83499986e-001 2.83399999e-001
      2.80499995e-001 2.78299987e-001 2.76499987e-001 2.74300009e-001
      2.75799990e-001 2.73699999e-001 2.73499995e-001 2.70999998e-001
      2.77000010e-001 2.80499995e-001 2.75999993e-001 2.73699999e-001
      2.72199988e-001 2.68599987e-001 2.65500009e-001 2.65399992e-001
      2.62600005e-001 2.60699987e-001 2.61299998e-001 2.55800009e-001
      2.54099995e-001 2.52200007e-001 2.50400007e-001 2.47799993e-001
      2.43799999e-001 2.43300006e-001</_>
    <_>
      2.03999996e-001 2.05500007e-001 2.09800005e-001 2.11899996e-001
      2.11500004e-001 2.13200003e-001 2.12899998e-001 2.17299998e-001
      2.15100005e-001 2.13400006e-001 2.12799996e-001 2.11999997e-001
      2.09700003e-001 2.07000002e-001 2.06799999e-001 2.06599995e-001
      2.05200002e-001 2.04300001e-001 2.06300005e-001 2.05699995e-001
      2.04899997e-001 2.06100002e-001 2.06400007e-001 2.09900007e-001
      2.09399998e-001 2.08800003e-001 2.09800005e-001 2.08100006e-001
      2.07100004e-001 2.04999998e-001 2.04799995e-001 2.05400005e-001
      2.02900007e-001 2.02500001e-001 1.99499995e-001 2.00399995e-001
      1.99200004e-001 1.97999999e-001 1.97799996e-001 1.97600007e-001
      1.94999993e-001 1.93700001e-001 1.91300005e-001 1.90400004e-001
      1.89999998e-001 1.89199999e-001 1.86900005e-001 1.84599996e-001
      1.83899999e-001 1.83599994e-001 1.82999998e-001 1.82600006e-001
      1.81400001e-001 1.77000001e-001 1.80399999e-001 1.77399993e-001
      1.77200004e-001 1.76400006e-001 1.77000001e-001 1.75600007e-001
      1.74899995e-001 1.73600003e-001 1.64600000e-001 1.71100006e-001
      1.70699999e-001 1.69300005e-001 1.65900007e-001 1.66600004e-001
      1.64000005e-001 1.63900003e-001</_>
    <_>
      2.03999996e-001 2.05500007e-001 2.09800005e-001 2.11899996e-001
      2.11500004e-001 2.13200003e-001 2.12899998e-001 2.17299998e-001
      2.15100005e-001 2.13400006e-001 2.12799996e-001 2.11999997e-001
      2.09700003e-001 2.07000002e-001 2.06799999e-001 2.06599995e-001
      2.05200002e-001 2.04300001e-001 2.06300005e-001 2.05699995e-001
      2.04899997e-001 2.06100002e-001 2.06400007e-001 2.09900007e-001
      2.09399998e-001 2.08800003e-001 2.09800005e-001 2.08100006e-001
      2.07100004e-001 2.04999998e-001 2.04799995e-001 2.05400005e-001
      2.02900007e-001 2.02500001e-001 1.99499995e-001 2.00399995e-001
      1.99200004e-001 1.97999999e-001 1.97799996e-001 1.97600007e-001
      1.94999993e-001 1.93700001e-001 1.91300005e-001 1.90400004e-001
      1.89999998e-001 1.89199999e-001 1.86900005e-001 1.84599996e-001
      1.83899999e-001 1.83599994e-001 1.82999998e-001 1.82600006e-001
      1.81400001e-001 1.77000001e-001 1.80399999e-001 1.77399993e-001
      1.77200004e-001 1.76400006e-001 1.77000001e-001 1.75600007e-001
      1.74899995e-001 1.73600003e-001 1.64600000e-001 1.71100006e-001
      1.70699999e-001 1.69300005e-001 1.65900007e-001 1.66600004e-001
      1.64000005e-001 1.63900003e-001</_>
    <_>
      5.07399976e-001 5.27599990e-001 5.45499980e-001 5.63899994e-001
      5.72000027e-001 5.89699984e-001 5.99399984e-001 6.15700006e-001
      6.25899971e-001 6.33400023e-001 6.43999994e-001 6.51600003e-001
      6.56300008e-001 6.60300016e-001 6.63500011e-001 6.66499972e-001
      6.70099974e-001 6.73699975e-001 6.74199998e-001 6.78799987e-001
      6.80499971e-001 6.87300026e-001 6.91699982e-001 6.96399987e-001
      7.00699985e-001 7.05999970e-001 7.08400011e-001 7.11399972e-001
      7.10900009e-001 7.13599980e-001 7.06799984e-001 7.11700022e-001
      7.04599977e-001 7.04100013e-001 7.03000009e-001 7.00500011e-001
      6.97600007e-001 6.95999980e-001 6.95999980e-001 6.99000001e-001
      6.93000019e-001 6.93499982e-001 6.91600025e-001 6.87300026e-001
      6.82299972e-001 6.80100024e-001 6.80000007e-001 6.74300015e-001
      6.75700009e-001 6.72299981e-001 6.69000030e-001 6.71000004e-001
      6.67999983e-001 6.71999991e-001 6.68399990e-001 6.65300012e-001
      6.65199995e-001 6.61599994e-001 6.60700023e-001 6.58399999e-001
      6.55600011e-001 6.50500000e-001 6.29299998e-001 6.42400026e-001
      6.39999986e-001 6.34899974e-001 6.30100012e-001 6.25999987e-001
      6.17900014e-001 6.17500007e-001</_>
    <_>
      3.67100000e-001 3.81900012e-001 3.84900004e-001 3.90100002e-001
      4.06500012e-001 4.07200009e-001 4.26099986e-001 4.20100003e-001
      4.26099986e-001 4.40299988e-001 4.43300009e-001 4.43800002e-001
      4.56499994e-001 4.60799992e-001 4.62900013e-001 4.62399989e-001
      4.64700013e-001 4.70200002e-001 4.64100003e-001 4.64399993e-001
      4.72999990e-001 4.70600009e-001 4.71500009e-001 4.76500005e-001
      4.75400001e-001 4.76399988e-001 4.79600012e-001 4.81400013e-001
      4.80500013e-001 4.78799999e-001 4.76099998e-001 4.77699995e-001
      4.75899994e-001 4.75899994e-001 4.75800008e-001 4.75300014e-001
      4.70699996e-001 4.71799999e-001 4.72700000e-001 4.70899999e-001
      4.70899999e-001 4.67400014e-001 4.66300011e-001 4.64599997e-001
      4.63099986e-001 4.63400006e-001 4.60799992e-001 4.57399994e-001
      4.60000008e-001 4.57100004e-001 4.58400011e-001 4.57700014e-001
      4.69700009e-001 4.81400013e-001 4.70099986e-001 4.70999986e-001
      4.72799987e-001 4.62099999e-001 4.59600002e-001 4.63200003e-001
      4.57199991e-001 4.52899992e-001 4.94199991e-001 4.44900006e-001
      4.44099993e-001 4.42799985e-001 4.48199987e-001 4.39500004e-001
      4.33200002e-001 4.33400005e-001</_>
    <_>
      2.04899997e-001 2.09999993e-001 2.07499996e-001 2.04899997e-001
      2.11400002e-001 2.09099993e-001 2.14300007e-001 2.06799999e-001
      2.06499994e-001 2.11700007e-001 2.08399996e-001 2.04300001e-001
      2.09299996e-001 2.10600004e-001 2.08199993e-001 2.07699999e-001
      2.06300005e-001 2.06000000e-001 2.03999996e-001 2.00000003e-001
      2.04200000e-001 1.99300006e-001 1.95999995e-001 2.01600000e-001
      1.96999997e-001 1.95899993e-001 1.96999997e-001 1.96899995e-001
      1.92300007e-001 1.89700007e-001 1.88500002e-001 1.87500000e-001
      1.84599996e-001 1.84799999e-001 1.84300005e-001 1.80500001e-001
      1.77900001e-001 1.77000001e-001 1.77800000e-001 1.74400002e-001
      1.75300002e-001 1.71000004e-001 1.67999998e-001 1.67799994e-001
      1.67099997e-001 1.64399996e-001 1.61899999e-001 1.61100000e-001
      1.61300004e-001 1.59400001e-001 1.59899995e-001 1.57900006e-001
      1.65700004e-001 1.74300000e-001 1.66299999e-001 1.63100004e-001
      1.62599996e-001 1.55699998e-001 1.53999999e-001 1.54499993e-001
      1.52099997e-001 1.49900004e-001 1.65700004e-001 1.47300005e-001
      1.46699995e-001 1.47300005e-001 1.50600001e-001 1.48100004e-001
      1.47699997e-001 1.48699999e-001</_>
    <_>
      1.86600000e-001 1.91400006e-001 1.87800005e-001 1.90899998e-001
      1.95500001e-001 1.92900002e-001 1.98599994e-001 1.92499995e-001
      1.91699997e-001 1.96600005e-001 1.93599999e-001 1.89300001e-001
      1.93700001e-001 1.95299998e-001 1.95800006e-001 1.93800002e-001
      1.92800000e-001 1.93299994e-001 1.91400006e-001 1.91000000e-001
      1.93900004e-001 1.86800003e-001 1.83899999e-001 1.86900005e-001
      1.84599996e-001 1.83400005e-001 1.81799993e-001 1.82099998e-001
      1.79499999e-001 1.77200004e-001 1.77499995e-001 1.76699996e-001
      1.74500003e-001 1.76200002e-001 1.76100001e-001 1.71900004e-001
      1.71399996e-001 1.71000004e-001 1.72999993e-001 1.70599997e-001
      1.71299994e-001 1.68300003e-001 1.66600004e-001 1.66800007e-001
      1.66099995e-001 1.65999994e-001 1.64199993e-001 1.63000003e-001
      1.64600000e-001 1.62499994e-001 1.63499996e-001 1.61899999e-001
      1.70300007e-001 1.77900001e-001 1.68899998e-001 1.68400005e-001
      1.69000000e-001 1.62300006e-001 1.62200004e-001 1.62499994e-001
      1.58999994e-001 1.58000007e-001 1.80099994e-001 1.55300006e-001
      1.55100003e-001 1.53999999e-001 1.55499995e-001 1.52700007e-001
      1.50299996e-001 1.49900004e-001</_>
    <_>
      1.77699998e-001 1.81600004e-001 1.78000003e-001 1.77499995e-001
      1.81600004e-001 1.77599996e-001 1.82899997e-001 1.73299998e-001
      1.72000006e-001 1.76300004e-001 1.73299998e-001 1.67699993e-001
      1.69900000e-001 1.70499995e-001 1.70300007e-001 1.68599993e-001
      1.68300003e-001 1.67999998e-001 1.66099995e-001 1.65700004e-001
      1.68899998e-001 1.63100004e-001 1.58899993e-001 1.63900003e-001
      1.59400001e-001 1.59999996e-001 1.59099996e-001 1.59400001e-001
      1.57000005e-001 1.55399993e-001 1.56000003e-001 1.55599996e-001
      1.53200001e-001 1.53999999e-001 1.54100001e-001 1.50999993e-001
      1.49700001e-001 1.49399996e-001 1.51600003e-001 1.49499997e-001
      1.51099995e-001 1.47100002e-001 1.44700006e-001 1.46200001e-001
      1.46400005e-001 1.45400003e-001 1.43600002e-001 1.43000007e-001
      1.43700004e-001 1.43099993e-001 1.44899994e-001 1.42700002e-001
      1.50299996e-001 1.57700002e-001 1.51700005e-001 1.48499995e-001
      1.48699999e-001 1.42000005e-001 1.40799999e-001 1.42900005e-001
      1.40699998e-001 1.38999999e-001 1.50800005e-001 1.36299998e-001
      1.34700000e-001 1.35700002e-001 1.36000007e-001 1.34100005e-001
      1.31500006e-001 1.32200003e-001</_>
    <_>
      3.47099990e-001 3.55699986e-001 3.63099992e-001 3.68400007e-001
      3.73899996e-001 3.77299994e-001 3.84000003e-001 3.84299994e-001
      3.89499992e-001 3.95599991e-001 3.93599987e-001 3.96299988e-001
      3.99699986e-001 4.02500004e-001 4.00299996e-001 4.02599990e-001
      4.04599994e-001 4.04799998e-001 4.03600007e-001 4.03200001e-001
      4.07799989e-001 4.07400012e-001 4.08600003e-001 4.13800001e-001
      4.12999988e-001 4.15499985e-001 4.15199995e-001 4.15399998e-001
      4.13399994e-001 4.10600007e-001 4.05999988e-001 4.07099992e-001
      4.04399991e-001 4.04100001e-001 4.00999993e-001 3.97700012e-001
      3.92600000e-001 3.90100002e-001 3.89899999e-001 3.87600005e-001
      3.85899991e-001 3.82900000e-001 3.80899996e-001 3.80800009e-001
      3.81599993e-001 3.82999986e-001 3.84900004e-001 3.86900008e-001
      3.90199989e-001 3.94400001e-001 3.95999998e-001 4.00400013e-001
      4.07900006e-001 4.22399998e-001 4.21400011e-001 4.24499989e-001
      4.27800000e-001 4.25999999e-001 4.26400006e-001 4.30400014e-001
      4.28700000e-001 4.28499997e-001 4.42600012e-001 4.26099986e-001
      4.27100003e-001 4.26400006e-001 4.29600000e-001 4.26099986e-001
      4.20599997e-001 4.21700001e-001</_>
    <_>
      2.85800010e-001 2.89900005e-001 2.90199995e-001 2.94200003e-001
      2.94600010e-001 2.94000000e-001 2.94800013e-001 2.96900004e-001
      2.93799996e-001 2.90800005e-001 2.90100008e-001 2.87999988e-001
      2.84099996e-001 2.83199996e-001 2.82400012e-001 2.80499995e-001
      2.79599994e-001 2.79300004e-001 2.79199988e-001 2.78100014e-001
      2.77999997e-001 2.77700007e-001 2.78299987e-001 2.82299995e-001
      2.82799989e-001 2.79599994e-001 2.79700011e-001 2.77999997e-001
      2.77200013e-001 2.74199992e-001 2.71800011e-001 2.70900011e-001
      2.70500004e-001 2.68400013e-001 2.66000003e-001 2.65199989e-001
      2.61900008e-001 2.61500001e-001 2.61000007e-001 2.60600001e-001
      2.57299989e-001 2.54500002e-001 2.51500010e-001 2.50800014e-001
      2.49599993e-001 2.47099996e-001 2.45000005e-001 2.42100000e-001
      2.42200002e-001 2.41500005e-001 2.39999995e-001 2.38199994e-001
      2.40899995e-001 2.39099994e-001 2.37299994e-001 2.34699994e-001
      2.33899996e-001 2.32500002e-001 2.31199995e-001 2.29599997e-001
      2.28799999e-001 2.26400003e-001 2.22599998e-001 2.23600000e-001
      2.21900001e-001 2.19999999e-001 2.16000006e-001 2.15100005e-001
      2.12099999e-001 2.12099999e-001</_>
    <_>
      2.89799988e-001 2.95399994e-001 2.98500001e-001 3.03600013e-001
      3.06400001e-001 3.05200011e-001 3.09199989e-001 3.09899986e-001
      3.08600008e-001 3.10000002e-001 3.07099998e-001 3.03499997e-001
      3.06300014e-001 3.05799991e-001 3.05599988e-001 3.03600013e-001
      3.04100007e-001 3.05799991e-001 3.03400010e-001 3.02899987e-001
      3.05299997e-001 3.01999986e-001 2.99800009e-001 3.05999994e-001
      3.03400010e-001 3.01999986e-001 3.00500005e-001 3.00799996e-001
      2.97899991e-001 2.93000013e-001 2.93000013e-001 2.92400002e-001
      2.91099995e-001 2.90600002e-001 2.90600002e-001 2.86300004e-001
      2.84200013e-001 2.83399999e-001 2.84500003e-001 2.80400008e-001
      2.81500012e-001 2.77099997e-001 2.74300009e-001 2.73200005e-001
      2.72000015e-001 2.71299988e-001 2.69199997e-001 2.66600013e-001
      2.67500013e-001 2.64200002e-001 2.67199993e-001 2.64099985e-001
      2.74399996e-001 2.78899997e-001 2.73699999e-001 2.68999994e-001
      2.69600004e-001 2.62800008e-001 2.62100011e-001 2.61799991e-001
      2.57699996e-001 2.55899996e-001 2.77500004e-001 2.50699997e-001
      2.48799995e-001 2.48500004e-001 2.50600010e-001 2.46000007e-001
      2.41999999e-001 2.41500005e-001</_>
    <_>
      2.99400002e-001 3.05900007e-001 3.08200002e-001 3.09799999e-001
      3.13499987e-001 3.10799986e-001 3.13899994e-001 3.09799999e-001
      3.10299993e-001 3.10000002e-001 3.07099998e-001 3.03499997e-001
      3.05700004e-001 3.05299997e-001 3.02800000e-001 3.01400006e-001
      3.00900012e-001 3.02300006e-001 2.98700005e-001 2.96099991e-001
      3.01299989e-001 2.98000008e-001 2.93399990e-001 3.02100003e-001
      2.98500001e-001 2.97800004e-001 2.94499993e-001 2.95399994e-001
      2.91500002e-001 2.86199987e-001 2.87299991e-001 2.84599990e-001
      2.83600003e-001 2.84299999e-001 2.83100009e-001 2.79700011e-001
      2.76600003e-001 2.75999993e-001 2.76600003e-001 2.73400009e-001
      2.73600012e-001 2.68799990e-001 2.66000003e-001 2.65399992e-001
      2.63399988e-001 2.62800008e-001 2.59700000e-001 2.57099986e-001
      2.57600009e-001 2.56199986e-001 2.56900012e-001 2.54999995e-001
      2.64499992e-001 2.75500000e-001 2.66600013e-001 2.64600009e-001
      2.63099998e-001 2.54700005e-001 2.51300007e-001 2.52400011e-001
      2.48600006e-001 2.44700000e-001 2.73699999e-001 2.39199996e-001
      2.38199994e-001 2.38199994e-001 2.41600007e-001 2.34899998e-001
      2.30299994e-001 2.30800003e-001</_>
    <_>
      2.90699989e-001 2.99699992e-001 3.02599996e-001 3.08299989e-001
      3.12000006e-001 3.12900007e-001 3.17200005e-001 3.17299992e-001
      3.17600012e-001 3.18899989e-001 3.19999993e-001 3.19900006e-001
      3.20400000e-001 3.19700003e-001 3.19099993e-001 3.19000006e-001
      3.17699999e-001 3.17200005e-001 3.16900015e-001 3.16399992e-001
      3.15499991e-001 3.16100001e-001 3.15299988e-001 3.20199996e-001
      3.18899989e-001 3.19599986e-001 3.19200009e-001 3.18800002e-001
      3.16300005e-001 3.13199997e-001 3.11699986e-001 3.10600013e-001
      3.07099998e-001 3.07000011e-001 3.04800004e-001 3.02700013e-001
      2.99899995e-001 2.99899995e-001 3.00399989e-001 2.97800004e-001
      2.96900004e-001 2.93500006e-001 2.91099995e-001 2.90699989e-001
      2.89000005e-001 2.87200004e-001 2.84399986e-001 2.82900006e-001
      2.82000005e-001 2.81699985e-001 2.80900002e-001 2.77799994e-001
      2.80900002e-001 2.81800002e-001 2.79199988e-001 2.76300013e-001
      2.77300000e-001 2.73499995e-001 2.71699995e-001 2.70200014e-001
      2.67699987e-001 2.64899999e-001 2.62800008e-001 2.59799987e-001
      2.58100003e-001 2.55899996e-001 2.54999995e-001 2.52400011e-001
      2.47299999e-001 2.46600002e-001</_>
    <_>
      2.44800001e-001 2.52600014e-001 2.52499998e-001 2.54200011e-001
      2.57400006e-001 2.58199990e-001 2.62699991e-001 2.60199994e-001
      2.60500014e-001 2.63200015e-001 2.62800008e-001 2.61299998e-001
      2.65199989e-001 2.65100002e-001 2.63999999e-001 2.63399988e-001
      2.64499992e-001 2.64299989e-001 2.60800004e-001 2.60500014e-001
      2.62499988e-001 2.60600001e-001 2.59200007e-001 2.64099985e-001
      2.61500001e-001 2.60199994e-001 2.60100007e-001 2.61400014e-001
      2.58100003e-001 2.55600005e-001 2.52400011e-001 2.51100004e-001
      2.49100000e-001 2.48400003e-001 2.45399997e-001 2.42400005e-001
      2.39199996e-001 2.37700000e-001 2.37900004e-001 2.33899996e-001
      2.32999995e-001 2.28799999e-001 2.24600002e-001 2.24500000e-001
      2.22499996e-001 2.19999999e-001 2.18300000e-001 2.15800002e-001
      2.15000004e-001 2.12899998e-001 2.12099999e-001 2.10899994e-001
      2.15299994e-001 2.19899997e-001 2.14399993e-001 2.13200003e-001
      2.11700007e-001 2.04500005e-001 2.03700006e-001 2.02700004e-001
      1.99200004e-001 1.97600007e-001 2.17500001e-001 1.93200007e-001
      1.93299994e-001 1.93900004e-001 1.98400006e-001 1.95500001e-001
      1.94000006e-001 1.94999993e-001</_>
    <_>
      2.92699993e-001 2.99699992e-001 3.02599996e-001 3.06699991e-001
      3.09799999e-001 3.13600004e-001 3.15800011e-001 3.15400004e-001
      3.17000002e-001 3.18199992e-001 3.17699999e-001 3.18899989e-001
      3.18199992e-001 3.17400008e-001 3.17499995e-001 3.16300005e-001
      3.17099988e-001 3.17200005e-001 3.13499987e-001 3.14200014e-001
      3.12700003e-001 3.12099993e-001 3.12999994e-001 3.16399992e-001
      3.15699995e-001 3.14700007e-001 3.13800007e-001 3.15899998e-001
      3.12799990e-001 3.08800012e-001 3.08299989e-001 3.07300001e-001
      3.03499997e-001 3.03799987e-001 3.00700009e-001 2.99299985e-001
      2.96799988e-001 2.95300007e-001 2.95500010e-001 2.94499993e-001
      2.94000000e-001 2.91000009e-001 2.87800014e-001 2.86599994e-001
      2.85800010e-001 2.84299999e-001 2.81500012e-001 2.78899997e-001
      2.79599994e-001 2.78699994e-001 2.78400004e-001 2.76400000e-001
      2.78800011e-001 2.82999992e-001 2.78499991e-001 2.76499987e-001
      2.75200009e-001 2.70999998e-001 2.68900007e-001 2.68400013e-001
      2.65700012e-001 2.63799995e-001 2.61700004e-001 2.57699996e-001
      2.56099999e-001 2.55299985e-001 2.53600001e-001 2.50299990e-001
      2.45900005e-001 2.46900007e-001</_>
    <_>
      1.50299996e-001 1.53899997e-001 1.50999993e-001 1.51600003e-001
      1.54599994e-001 1.51600003e-001 1.55599996e-001 1.49700001e-001
      1.49299994e-001 1.52300000e-001 1.50000006e-001 1.44899994e-001
      1.47699997e-001 1.47799999e-001 1.48599997e-001 1.46599993e-001
      1.45500004e-001 1.45999998e-001 1.44299999e-001 1.41800001e-001
      1.46699995e-001 1.40300006e-001 1.36399999e-001 1.40599996e-001
      1.38500005e-001 1.37799993e-001 1.37199998e-001 1.36600003e-001
      1.34399995e-001 1.33100003e-001 1.32200003e-001 1.31400004e-001
      1.29999995e-001 1.31799996e-001 1.29700005e-001 1.28500000e-001
      1.26699999e-001 1.27200007e-001 1.27599999e-001 1.25900000e-001
      1.25799999e-001 1.23499997e-001 1.21900000e-001 1.23199999e-001
      1.22100003e-001 1.21299997e-001 1.19800001e-001 1.18900001e-001
      1.18900001e-001 1.18299998e-001 1.17899999e-001 1.15999997e-001
      1.23700000e-001 1.34900004e-001 1.27200007e-001 1.22599997e-001
      1.23599999e-001 1.17799997e-001 1.15999997e-001 1.17200002e-001
      1.15599997e-001 1.13899998e-001 1.38799995e-001 1.11299999e-001
      1.11400001e-001 1.11500002e-001 1.14600003e-001 1.10100001e-001
      1.08700000e-001 1.08700000e-001</_>
    <_>
      2.33300000e-001 2.35599995e-001 2.37000003e-001 2.39399999e-001
      2.41500005e-001 2.39899993e-001 2.43599996e-001 2.40899995e-001
      2.42300004e-001 2.44599998e-001 2.44100004e-001 2.42500007e-001
      2.44000003e-001 2.43699998e-001 2.42500007e-001 2.41500005e-001
      2.41500005e-001 2.40099996e-001 2.40099996e-001 2.40199998e-001
      2.38499999e-001 2.40099996e-001 2.39500001e-001 2.43599996e-001
      2.41400003e-001 2.40999997e-001 2.41200000e-001 2.41799995e-001
      2.39600003e-001 2.37100005e-001 2.37000003e-001 2.36599997e-001
      2.34400004e-001 2.34599993e-001 2.32600003e-001 2.31099993e-001
      2.29599997e-001 2.28699997e-001 2.28699997e-001 2.26899996e-001
      2.26199999e-001 2.23100007e-001 2.21499994e-001 2.20599994e-001
      2.18799993e-001 2.17399999e-001 2.15200007e-001 2.13900000e-001
      2.14499995e-001 2.12300003e-001 2.12899998e-001 2.11400002e-001
      2.13000000e-001 2.08399996e-001 2.13699996e-001 2.11799994e-001
      2.10400000e-001 2.09700003e-001 2.08299994e-001 2.07300007e-001
      2.06100002e-001 2.03899994e-001 1.87299997e-001 2.00800002e-001
      2.00499997e-001 1.98400006e-001 1.96999997e-001 1.95899993e-001
      1.93200007e-001 1.92900002e-001</_>
    <_>
      1.93399996e-001 1.95800006e-001 1.99200004e-001 2.05799997e-001
      2.02800006e-001 2.06300005e-001 2.04799995e-001 2.09900007e-001
      2.07800001e-001 2.03199998e-001 2.03799993e-001 2.01600000e-001
      1.97799996e-001 1.97200000e-001 1.95299998e-001 1.94299996e-001
      1.92699999e-001 1.92200005e-001 1.91900000e-001 1.92200005e-001
      1.90500006e-001 1.90300003e-001 1.89099997e-001 1.92499995e-001
      1.91900000e-001 1.89600006e-001 1.88600004e-001 1.88199997e-001
      1.87000006e-001 1.83100000e-001 1.81299999e-001 1.81400001e-001
      1.80500001e-001 1.80199996e-001 1.79600000e-001 1.77699998e-001
      1.76100001e-001 1.75600007e-001 1.75300002e-001 1.73700005e-001
      1.74199998e-001 1.70200005e-001 1.69000000e-001 1.69499993e-001
      1.67799994e-001 1.65800005e-001 1.64700001e-001 1.62699997e-001
      1.63900003e-001 1.63000003e-001 1.62699997e-001 1.60200000e-001
      1.64399996e-001 1.65000007e-001 1.65800005e-001 1.63000003e-001
      1.63100004e-001 1.58999994e-001 1.58099994e-001 1.58000007e-001
      1.56000003e-001 1.54699996e-001 1.58099994e-001 1.51600003e-001
      1.51099995e-001 1.50999993e-001 1.50299996e-001 1.48399994e-001
      1.46100000e-001 1.45699993e-001</_>
    <_>
      2.57600009e-001 2.63200015e-001 2.63999999e-001 2.65899986e-001
      2.67500013e-001 2.66499996e-001 2.67500013e-001 2.62699991e-001
      2.62899995e-001 2.64899999e-001 2.63999999e-001 2.60100007e-001
      2.65599996e-001 2.64800012e-001 2.63500005e-001 2.63799995e-001
      2.65500009e-001 2.66499996e-001 2.61900008e-001 2.60699987e-001
      2.65599996e-001 2.64999986e-001 2.64299989e-001 2.69499987e-001
      2.65500009e-001 2.66499996e-001 2.66700000e-001 2.68500000e-001
      2.66200006e-001 2.62600005e-001 2.61700004e-001 2.61799991e-001
      2.60399997e-001 2.61999995e-001 2.59400010e-001 2.59499997e-001
      2.55800009e-001 2.56399989e-001 2.57200003e-001 2.53699988e-001
      2.53500015e-001 2.50299990e-001 2.47999996e-001 2.49899998e-001
      2.49699995e-001 2.47799993e-001 2.46700004e-001 2.44900003e-001
      2.45100006e-001 2.41400003e-001 2.41899997e-001 2.41200000e-001
      2.47700006e-001 2.55199999e-001 2.51800001e-001 2.52299994e-001
      2.54200011e-001 2.48199999e-001 2.46500000e-001 2.47299999e-001
      2.43900001e-001 2.41099998e-001 2.53600001e-001 2.34999999e-001
      2.34200001e-001 2.33700007e-001 2.37499997e-001 2.31299996e-001
      2.27799997e-001 2.26899996e-001</_>
    <_>
      2.87800014e-001 2.95199990e-001 3.00099999e-001 3.05099994e-001
      3.09100002e-001 3.10799986e-001 3.15200001e-001 3.15400004e-001
      3.16399992e-001 3.17000002e-001 3.18300009e-001 3.18300009e-001
      3.17600012e-001 3.17900002e-001 3.17400008e-001 3.17400008e-001
      3.17099988e-001 3.16100001e-001 3.14700007e-001 3.14200014e-001
      3.14900011e-001 3.13300014e-001 3.12999994e-001 3.17600012e-001
      3.14900011e-001 3.16599995e-001 3.15299988e-001 3.15800011e-001
      3.13899994e-001 3.10299993e-001 3.07700008e-001 3.08999985e-001
      3.05200011e-001 3.03499997e-001 3.01699996e-001 2.99899995e-001
      2.96799988e-001 2.96000004e-001 2.96299994e-001 2.95800000e-001
      2.94999987e-001 2.91200012e-001 2.89700001e-001 2.88100004e-001
      2.86900014e-001 2.83499986e-001 2.81800002e-001 2.80400008e-001
      2.80400008e-001 2.76699990e-001 2.75700003e-001 2.75599986e-001
      2.79300004e-001 2.81199992e-001 2.78400004e-001 2.75099993e-001
      2.74599999e-001 2.70000011e-001 2.69199997e-001 2.68200010e-001
      2.65300006e-001 2.62899995e-001 2.60500014e-001 2.58300006e-001
      2.56700009e-001 2.54400015e-001 2.52700001e-001 2.50000000e-001
      2.46099994e-001 2.44800001e-001</_>
    <_>
      2.87800014e-001 2.96099991e-001 2.98400015e-001 3.04399997e-001
      3.07599992e-001 3.11500013e-001 3.13800007e-001 3.14799994e-001
      3.15699995e-001 3.17699999e-001 3.17099988e-001 3.18300009e-001
      3.18199992e-001 3.17900002e-001 3.17400008e-001 3.17400008e-001
      3.17699999e-001 3.16599995e-001 3.15200001e-001 3.13600004e-001
      3.14300001e-001 3.13800007e-001 3.14099997e-001 3.18199992e-001
      3.17900002e-001 3.15800011e-001 3.15899998e-001 3.16900015e-001
      3.13600004e-001 3.10000002e-001 3.07999998e-001 3.07500005e-001
      3.04899991e-001 3.03000003e-001 3.02199990e-001 3.01400006e-001
      2.96400011e-001 2.97399998e-001 2.96999991e-001 2.95800000e-001
      2.94600010e-001 2.92100012e-001 2.88899988e-001 2.87800014e-001
      2.86900014e-001 2.84299999e-001 2.82400012e-001 2.80499995e-001
      2.80000001e-001 2.77900010e-001 2.77599990e-001 2.75700003e-001
      2.80900002e-001 2.77200013e-001 2.78699994e-001 2.76100010e-001
      2.73900002e-001 2.70399988e-001 2.69600004e-001 2.68200010e-001
      2.66700000e-001 2.63000011e-001 2.61299998e-001 2.58700013e-001
      2.57600009e-001 2.55299985e-001 2.53899992e-001 2.50499994e-001
      2.46299997e-001 2.46199995e-001</_>
    <_>
      2.83899993e-001 2.92600006e-001 2.96000004e-001 3.01999986e-001
      3.03999990e-001 3.06600004e-001 3.11699986e-001 3.12900007e-001
      3.15699995e-001 3.15899998e-001 3.17099988e-001 3.17200005e-001
      3.18199992e-001 3.17900002e-001 3.17400008e-001 3.16900015e-001
      3.17099988e-001 3.16599995e-001 3.15200001e-001 3.14700007e-001
      3.15499991e-001 3.14399987e-001 3.15299988e-001 3.18500012e-001
      3.17799985e-001 3.18599999e-001 3.17699999e-001 3.17299992e-001
      3.16700011e-001 3.12299997e-001 3.11600000e-001 3.10499996e-001
      3.07900012e-001 3.06600004e-001 3.05400014e-001 3.03200006e-001
      3.00599992e-001 2.99899995e-001 2.99299985e-001 2.98999995e-001
      2.96999991e-001 2.94999987e-001 2.91700006e-001 2.90499985e-001
      2.89600015e-001 2.86700010e-001 2.85100013e-001 2.83499986e-001
      2.83199996e-001 2.81399995e-001 2.80600011e-001 2.77500004e-001
      2.82700002e-001 2.83399999e-001 2.82999992e-001 2.77799994e-001
      2.78100014e-001 2.73900002e-001 2.72500008e-001 2.72199988e-001
      2.69499987e-001 2.66799986e-001 2.68000007e-001 2.61500001e-001
      2.59799987e-001 2.59400010e-001 2.56700009e-001 2.52799988e-001
      2.50600010e-001 2.47700006e-001</_>
    <_>
      2.12799996e-001 2.17999995e-001 2.12500006e-001 2.11300001e-001
      2.16600001e-001 2.10500002e-001 2.16299996e-001 2.04999998e-001
      2.04699993e-001 2.09199995e-001 2.04400003e-001 1.99200004e-001
      2.01800004e-001 2.02800006e-001 1.99699998e-001 1.99100003e-001
      1.97099999e-001 1.98500007e-001 1.94900006e-001 1.94399998e-001
      1.97799996e-001 1.93100005e-001 1.87999994e-001 1.94000006e-001
      1.91100001e-001 1.89099997e-001 1.88500002e-001 1.88199997e-001
      1.85800001e-001 1.83100000e-001 1.81299999e-001 1.80600002e-001
      1.80199996e-001 1.81199998e-001 1.82699993e-001 1.78100005e-001
      1.75799996e-001 1.75300002e-001 1.78000003e-001 1.74600005e-001
      1.75699994e-001 1.71800002e-001 1.70399994e-001 1.71299994e-001
      1.70300007e-001 1.69499993e-001 1.67199999e-001 1.66600004e-001
      1.66700006e-001 1.64100006e-001 1.66099995e-001 1.62799999e-001
      1.71200007e-001 1.76300004e-001 1.70300007e-001 1.69599995e-001
      1.70399994e-001 1.65399998e-001 1.63699999e-001 1.64299995e-001
      1.61200002e-001 1.58600003e-001 1.76899999e-001 1.56499997e-001
      1.55399993e-001 1.54899999e-001 1.56399995e-001 1.52899995e-001
      1.49700001e-001 1.48900002e-001</_>
    <_>
      2.02900007e-001 2.03799993e-001 2.08199993e-001 2.13499993e-001
      2.12099999e-001 2.18999997e-001 2.16299996e-001 2.22900003e-001
      2.21799999e-001 2.19999999e-001 2.20300004e-001 2.19200000e-001
      2.15499997e-001 2.16900006e-001 2.15200007e-001 2.14599997e-001
      2.13900000e-001 2.15200007e-001 2.14300007e-001 2.13599995e-001
      2.13400006e-001 2.12899998e-001 2.12799996e-001 2.15200007e-001
      2.13799998e-001 2.13400006e-001 2.12200001e-001 2.12099999e-001
      2.09999993e-001 2.07900003e-001 2.05799997e-001 2.06300005e-001
      2.04999998e-001 2.05699995e-001 2.03999996e-001 2.01800004e-001
      2.00499997e-001 2.00200006e-001 1.99499995e-001 1.98699996e-001
      1.97300002e-001 1.95800006e-001 1.93000004e-001 1.93100005e-001
      1.91699997e-001 1.91000000e-001 1.88600004e-001 1.87600002e-001
      1.86800003e-001 1.86100006e-001 1.85699999e-001 1.84699997e-001
      1.88400000e-001 1.93599999e-001 1.90899998e-001 1.86800003e-001
      1.88500002e-001 1.82699993e-001 1.80700004e-001 1.81999996e-001
      1.79800004e-001 1.77499995e-001 1.92399994e-001 1.74300000e-001
      1.73099995e-001 1.72900006e-001 1.74099997e-001 1.70399994e-001
      1.68099999e-001 1.67600006e-001</_>
    <_>
      2.27500007e-001 2.28599995e-001 2.36200005e-001 2.42599994e-001
      2.35599995e-001 2.42100000e-001 2.32700005e-001 2.49699995e-001
      2.43399993e-001 2.33199999e-001 2.34500006e-001 2.38000005e-001
      2.27599993e-001 2.22299993e-001 2.21200004e-001 2.21200004e-001
      2.19400004e-001 2.15900004e-001 2.18999997e-001 2.19999999e-001
      2.14699998e-001 2.19200000e-001 2.21000001e-001 2.23600000e-001
      2.24099994e-001 2.24999994e-001 2.22200006e-001 2.21900001e-001
      2.19699994e-001 2.16000006e-001 2.15499997e-001 2.14300007e-001
      2.13200003e-001 2.10600004e-001 2.08700001e-001 2.07699999e-001
      2.05899999e-001 2.04400003e-001 2.03899994e-001 2.03899994e-001
      2.00900003e-001 1.99399993e-001 1.97899997e-001 1.96400002e-001
      1.94800004e-001 1.91799998e-001 1.90799996e-001 1.87700003e-001
      1.87399998e-001 1.85900003e-001 1.85599998e-001 1.84799999e-001
      1.81799993e-001 1.74700007e-001 1.78100005e-001 1.76100001e-001
      1.74899995e-001 1.75699994e-001 1.76200002e-001 1.72800004e-001
      1.73099995e-001 1.71000004e-001 1.55200005e-001 1.69000000e-001
      1.67500004e-001 1.66299999e-001 1.62400007e-001 1.62000000e-001
      1.60400003e-001 1.60400003e-001</_>
    <_>
      2.98400015e-001 3.03200006e-001 3.03299993e-001 3.06600004e-001
      3.07599992e-001 3.06699991e-001 3.07700008e-001 3.04800004e-001
      3.03499997e-001 3.00399989e-001 2.98500001e-001 2.94000000e-001
      2.93199986e-001 2.91999996e-001 2.91000009e-001 2.89000005e-001
      2.88399994e-001 2.88399994e-001 2.87800014e-001 2.85400003e-001
      2.88800001e-001 2.85499990e-001 2.83499986e-001 2.89999992e-001
      2.87999988e-001 2.86599994e-001 2.85800010e-001 2.84399986e-001
      2.82599986e-001 2.77399987e-001 2.76899993e-001 2.77999997e-001
      2.74199992e-001 2.74300009e-001 2.72399992e-001 2.70599991e-001
      2.67300010e-001 2.66099989e-001 2.66499996e-001 2.65500009e-001
      2.64400005e-001 2.59799987e-001 2.56999999e-001 2.56000012e-001
      2.54799992e-001 2.52400011e-001 2.50299990e-001 2.49200001e-001
      2.47500002e-001 2.47999996e-001 2.48500004e-001 2.46700004e-001
      2.54999995e-001 2.58599997e-001 2.53899992e-001 2.49699995e-001
      2.49400005e-001 2.43499994e-001 2.39399999e-001 2.39600003e-001
      2.37200007e-001 2.33600006e-001 2.45499998e-001 2.30599999e-001
      2.27699995e-001 2.25999996e-001 2.27799997e-001 2.24299997e-001
      2.19999999e-001 2.20599994e-001</_>
    <_>
      3.09399992e-001 3.13899994e-001 3.16599995e-001 3.16900015e-001
      3.21000010e-001 3.19299996e-001 3.18599999e-001 3.17900002e-001
      3.15899998e-001 3.15400004e-001 3.10499996e-001 3.07300001e-001
      3.07900012e-001 3.05799991e-001 3.03900003e-001 3.01999986e-001
      3.03600013e-001 3.01699996e-001 2.99800009e-001 2.98299998e-001
      3.01800013e-001 3.00300002e-001 2.98000008e-001 3.04699987e-001
      3.02100003e-001 3.01899999e-001 3.00599992e-001 2.99499989e-001
      2.97100008e-001 2.93900013e-001 2.90800005e-001 2.93099999e-001
      2.89099991e-001 2.88700014e-001 2.86700010e-001 2.86300004e-001
      2.82599986e-001 2.81199992e-001 2.81300008e-001 2.78899997e-001
      2.77799994e-001 2.75200009e-001 2.73200005e-001 2.71299988e-001
      2.69699991e-001 2.67800003e-001 2.65799999e-001 2.62300014e-001
      2.63200015e-001 2.62300014e-001 2.60100007e-001 2.58599997e-001
      2.64600009e-001 2.72700012e-001 2.64699996e-001 2.62899995e-001
      2.63200015e-001 2.56900012e-001 2.54900008e-001 2.55600005e-001
      2.51700014e-001 2.48799995e-001 2.63599992e-001 2.43200004e-001
      2.42300004e-001 2.39999995e-001 2.42100000e-001 2.38100007e-001
      2.33700007e-001 2.33400002e-001</_>
    <_>
      2.85800010e-001 2.89900005e-001 2.90199995e-001 2.94200003e-001
      2.94600010e-001 2.94000000e-001 2.94800013e-001 2.96900004e-001
      2.93799996e-001 2.90800005e-001 2.90100008e-001 2.87999988e-001
      2.84099996e-001 2.83199996e-001 2.82400012e-001 2.80499995e-001
      2.79599994e-001 2.79300004e-001 2.79199988e-001 2.78100014e-001
      2.77999997e-001 2.77700007e-001 2.78299987e-001 2.82299995e-001
      2.82799989e-001 2.79599994e-001 2.79700011e-001 2.77999997e-001
      2.77200013e-001 2.74199992e-001 2.71800011e-001 2.70900011e-001
      2.70500004e-001 2.68400013e-001 2.66000003e-001 2.65199989e-001
      2.61900008e-001 2.61500001e-001 2.61000007e-001 2.60600001e-001
      2.57299989e-001 2.54500002e-001 2.51500010e-001 2.50800014e-001
      2.49599993e-001 2.47099996e-001 2.45000005e-001 2.42100000e-001
      2.42200002e-001 2.41500005e-001 2.39999995e-001 2.38199994e-001
      2.40899995e-001 2.39099994e-001 2.37299994e-001 2.34699994e-001
      2.33899996e-001 2.32500002e-001 2.31199995e-001 2.29599997e-001
      2.28799999e-001 2.26400003e-001 2.22599998e-001 2.23600000e-001
      2.21900001e-001 2.19999999e-001 2.16000006e-001 2.15100005e-001
      2.12099999e-001 2.12099999e-001</_>
    <_>
      2.89799988e-001 2.95399994e-001 2.98500001e-001 3.03600013e-001
      3.06400001e-001 3.05200011e-001 3.09199989e-001 3.09899986e-001
      3.08600008e-001 3.10000002e-001 3.07099998e-001 3.03499997e-001
      3.06300014e-001 3.05799991e-001 3.05599988e-001 3.03600013e-001
      3.04100007e-001 3.05799991e-001 3.03400010e-001 3.02899987e-001
      3.05299997e-001 3.01999986e-001 2.99800009e-001 3.05999994e-001
      3.03400010e-001 3.01999986e-001 3.00500005e-001 3.00799996e-001
      2.97899991e-001 2.93000013e-001 2.93000013e-001 2.92400002e-001
      2.91099995e-001 2.90600002e-001 2.90600002e-001 2.86300004e-001
      2.84200013e-001 2.83399999e-001 2.84500003e-001 2.80400008e-001
      2.81500012e-001 2.77099997e-001 2.74300009e-001 2.73200005e-001
      2.72000015e-001 2.71299988e-001 2.69199997e-001 2.66600013e-001
      2.67500013e-001 2.64200002e-001 2.67199993e-001 2.64099985e-001
      2.74399996e-001 2.78899997e-001 2.73699999e-001 2.68999994e-001
      2.69600004e-001 2.62800008e-001 2.62100011e-001 2.61799991e-001
      2.57699996e-001 2.55899996e-001 2.77500004e-001 2.50699997e-001
      2.48799995e-001 2.48500004e-001 2.50600010e-001 2.46000007e-001
      2.41999999e-001 2.41500005e-001</_>
    <_>
      3.54099989e-001 3.60100001e-001 3.63999993e-001 3.65399987e-001
      3.68999988e-001 3.66299987e-001 3.67100000e-001 3.66400003e-001
      3.66299987e-001 3.65099996e-001 3.61999989e-001 3.60500008e-001
      3.58799994e-001 3.56500000e-001 3.54900002e-001 3.53300005e-001
      3.51399988e-001 3.49000007e-001 3.50400001e-001 3.49500000e-001
      3.48300010e-001 3.49700004e-001 3.48399997e-001 3.55199993e-001
      3.53199989e-001 3.52100015e-001 3.51000011e-001 3.50499988e-001
      3.47900003e-001 3.44700009e-001 3.42099994e-001 3.40299994e-001
      3.38200003e-001 3.35799992e-001 3.34399998e-001 3.32100004e-001
      3.28299999e-001 3.27199996e-001 3.25800002e-001 3.24900001e-001
      3.23500007e-001 3.21099997e-001 3.15499991e-001 3.14799994e-001
      3.11199993e-001 3.09100002e-001 3.07399988e-001 3.03999990e-001
      3.05500001e-001 3.03299993e-001 3.03799987e-001 3.01200002e-001
      3.04699987e-001 3.09100002e-001 3.06499988e-001 2.99199998e-001
      2.98299998e-001 2.92299986e-001 2.90899992e-001 2.89200008e-001
      2.86500007e-001 2.82999992e-001 2.71699995e-001 2.79100001e-001
      2.75900006e-001 2.73699999e-001 2.72300005e-001 2.69300014e-001
      2.65500009e-001 2.66200006e-001</_>
    <_>
      2.14699998e-001 2.13400006e-001 2.16499999e-001 2.19799995e-001
      2.17999995e-001 2.18799993e-001 2.12899998e-001 2.19799995e-001
      2.16199994e-001 2.09700003e-001 2.08399996e-001 2.07499996e-001
      1.99399993e-001 1.97200000e-001 1.94700003e-001 1.93700001e-001
      1.92100003e-001 1.89199999e-001 1.91400006e-001 1.91599995e-001
      1.88299999e-001 1.87900007e-001 1.88999996e-001 1.90699995e-001
      1.90500006e-001 1.90099999e-001 1.89700007e-001 1.88500002e-001
      1.86299995e-001 1.84200004e-001 1.82200000e-001 1.81099996e-001
      1.80700004e-001 1.79900005e-001 1.76899999e-001 1.75799996e-001
      1.74700007e-001 1.73600003e-001 1.73600003e-001 1.73099995e-001
      1.70300007e-001 1.68099999e-001 1.66700006e-001 1.65600002e-001
      1.64000005e-001 1.63100004e-001 1.60600007e-001 1.59299999e-001
      1.59799993e-001 1.57399997e-001 1.56000003e-001 1.54899999e-001
      1.55399993e-001 1.52400002e-001 1.52400002e-001 1.51800007e-001
      1.50099993e-001 1.49499997e-001 1.49299994e-001 1.48200005e-001
      1.47200003e-001 1.45300001e-001 1.41700000e-001 1.43399999e-001
      1.42499998e-001 1.40799999e-001 1.38899997e-001 1.37300000e-001
      1.36099994e-001 1.35900006e-001</_>
    <_>
      2.98400015e-001 3.03200006e-001 3.03299993e-001 3.06600004e-001
      3.07599992e-001 3.06699991e-001 3.07700008e-001 3.04800004e-001
      3.03499997e-001 3.00399989e-001 2.98500001e-001 2.94000000e-001
      2.93199986e-001 2.91999996e-001 2.91000009e-001 2.89000005e-001
      2.88399994e-001 2.88399994e-001 2.87800014e-001 2.85400003e-001
      2.88800001e-001 2.85499990e-001 2.83499986e-001 2.89999992e-001
      2.87999988e-001 2.86599994e-001 2.85800010e-001 2.84399986e-001
      2.82599986e-001 2.77399987e-001 2.76899993e-001 2.77999997e-001
      2.74199992e-001 2.74300009e-001 2.72399992e-001 2.70599991e-001
      2.67300010e-001 2.66099989e-001 2.66499996e-001 2.65500009e-001
      2.64400005e-001 2.59799987e-001 2.56999999e-001 2.56000012e-001
      2.54799992e-001 2.52400011e-001 2.50299990e-001 2.49200001e-001
      2.47500002e-001 2.47999996e-001 2.48500004e-001 2.46700004e-001
      2.54999995e-001 2.58599997e-001 2.53899992e-001 2.49699995e-001
      2.49400005e-001 2.43499994e-001 2.39399999e-001 2.39600003e-001
      2.37200007e-001 2.33600006e-001 2.45499998e-001 2.30599999e-001
      2.27699995e-001 2.25999996e-001 2.27799997e-001 2.24299997e-001
      2.19999999e-001 2.20599994e-001</_>
    <_>
      2.62499988e-001 2.66799986e-001 2.67300010e-001 2.66900003e-001
      2.69899994e-001 2.69499987e-001 2.71600008e-001 2.67100006e-001
      2.68000007e-001 2.68599987e-001 2.67399997e-001 2.64699996e-001
      2.64699996e-001 2.65300006e-001 2.62699991e-001 2.61299998e-001
      2.61700004e-001 2.59099990e-001 2.59200007e-001 2.58500010e-001
      2.57600009e-001 2.58399993e-001 2.58599997e-001 2.62499988e-001
      2.60600001e-001 2.59900004e-001 2.58300006e-001 2.59099990e-001
      2.56300002e-001 2.54000008e-001 2.53800005e-001 2.52900004e-001
      2.49699995e-001 2.49500006e-001 2.47600004e-001 2.46999994e-001
      2.43599996e-001 2.42400005e-001 2.43599996e-001 2.40999997e-001
      2.41999999e-001 2.38499999e-001 2.35300004e-001 2.33799994e-001
      2.32700005e-001 2.31099993e-001 2.28699997e-001 2.27799997e-001
      2.28100002e-001 2.29399994e-001 2.28699997e-001 2.27300003e-001
      2.32099995e-001 2.30800003e-001 2.31999993e-001 2.28499994e-001
      2.26899996e-001 2.23499998e-001 2.21100003e-001 2.20599994e-001
      2.19500005e-001 2.17500001e-001 2.06000000e-001 2.13100001e-001
      2.12200001e-001 2.11999997e-001 2.09299996e-001 2.08199993e-001
      2.04400003e-001 2.05899999e-001</_>
    <_>
      2.83800006e-001 2.87200004e-001 2.92699993e-001 2.95700014e-001
      2.95199990e-001 3.01800013e-001 2.96099991e-001 3.04199994e-001
      3.02300006e-001 2.98599988e-001 2.98500001e-001 2.98999995e-001
      2.92600006e-001 2.89600015e-001 2.88500011e-001 2.89000005e-001
      2.87800014e-001 2.84900010e-001 2.89999992e-001 2.89299995e-001
      2.85800010e-001 2.89999992e-001 2.91599989e-001 2.94600010e-001
      2.94800013e-001 2.94499993e-001 2.92899996e-001 2.92800009e-001
      2.90699989e-001 2.88700014e-001 2.87600011e-001 2.87499994e-001
      2.84399986e-001 2.84099996e-001 2.82400012e-001 2.81500012e-001
      2.78800011e-001 2.78200001e-001 2.78899997e-001 2.77399987e-001
      2.75299996e-001 2.72100002e-001 2.70099998e-001 2.69699991e-001
      2.66900003e-001 2.66200006e-001 2.63399988e-001 2.60899991e-001
      2.61200011e-001 2.59700000e-001 2.57200003e-001 2.56500006e-001
      2.52499998e-001 2.43599996e-001 2.49699995e-001 2.48799995e-001
      2.47299999e-001 2.48199999e-001 2.49200001e-001 2.46399999e-001
      2.46099994e-001 2.43300006e-001 2.19200000e-001 2.40700006e-001
      2.39399999e-001 2.36300007e-001 2.31900007e-001 2.31700003e-001
      2.27599993e-001 2.27500007e-001</_>
    <_>
      3.05200011e-001 3.11300009e-001 3.14799994e-001 3.18399996e-001
      3.20800006e-001 3.21500003e-001 3.24800014e-001 3.23399991e-001
      3.23799998e-001 3.23199987e-001 3.22800010e-001 3.19499999e-001
      3.19400012e-001 3.19299996e-001 3.19499999e-001 3.19099993e-001
      3.18300009e-001 3.19499999e-001 3.17600012e-001 3.18300009e-001
      3.20899993e-001 3.18899989e-001 3.17699999e-001 3.24000001e-001
      3.20600003e-001 3.20899993e-001 3.19000006e-001 3.20499986e-001
      3.17400008e-001 3.14999998e-001 3.14300001e-001 3.13300014e-001
      3.10299993e-001 3.09399992e-001 3.08099985e-001 3.06400001e-001
      3.03600013e-001 3.03200006e-001 3.03499997e-001 3.02300006e-001
      3.00999999e-001 2.97399998e-001 2.95399994e-001 2.93900013e-001
      2.91500002e-001 2.89799988e-001 2.86900014e-001 2.86100000e-001
      2.85600007e-001 2.85299987e-001 2.85899997e-001 2.84000009e-001
      2.91999996e-001 2.96000004e-001 2.90399998e-001 2.87400007e-001
      2.86599994e-001 2.79399991e-001 2.78200001e-001 2.77900010e-001
      2.75299996e-001 2.72199988e-001 2.76600003e-001 2.67300010e-001
      2.66200006e-001 2.64200002e-001 2.64600009e-001 2.61500001e-001
      2.56999999e-001 2.58100003e-001</_>
    <_>
      1.94499999e-001 1.95700005e-001 1.96099997e-001 1.97099999e-001
      1.96999997e-001 1.95099995e-001 1.96500003e-001 1.92499995e-001
      1.89300001e-001 1.89500004e-001 1.85800001e-001 1.83799997e-001
      1.81299999e-001 1.80999994e-001 1.80000007e-001 1.78200006e-001
      1.76400006e-001 1.77300006e-001 1.75899997e-001 1.75200000e-001
      1.76899999e-001 1.73299998e-001 1.71100006e-001 1.74999997e-001
      1.74300000e-001 1.73500001e-001 1.71299994e-001 1.70000002e-001
      1.69100001e-001 1.66600004e-001 1.66800007e-001 1.66500002e-001
      1.64100006e-001 1.64900005e-001 1.63399994e-001 1.61599994e-001
      1.59999996e-001 1.60699993e-001 1.60500005e-001 1.59600005e-001
      1.59600005e-001 1.56399995e-001 1.55499995e-001 1.54899999e-001
      1.53500006e-001 1.52799994e-001 1.51999995e-001 1.51500002e-001
      1.50500000e-001 1.48800001e-001 1.49000004e-001 1.48699999e-001
      1.53600007e-001 1.58299997e-001 1.52099997e-001 1.49800003e-001
      1.49200007e-001 1.45899996e-001 1.44700006e-001 1.44400001e-001
      1.43700004e-001 1.41499996e-001 1.47900000e-001 1.38799995e-001
      1.38799995e-001 1.37300000e-001 1.35800004e-001 1.34399995e-001
      1.31500006e-001 1.32400006e-001</_>
    <_>
      2.20400006e-001 2.19699994e-001 2.25600004e-001 2.31399998e-001
      2.27500007e-001 2.32899994e-001 2.27200001e-001 2.37800002e-001
      2.36599997e-001 2.30800003e-001 2.31600001e-001 2.32500002e-001
      2.25199997e-001 2.20400006e-001 2.21399993e-001 2.21000001e-001
      2.20899999e-001 2.14599997e-001 2.19999999e-001 2.22100005e-001
      2.15200007e-001 2.22000003e-001 2.25600004e-001 2.26099998e-001
      2.25299999e-001 2.26300001e-001 2.25500003e-001 2.26400003e-001
      2.24099994e-001 2.22900003e-001 2.20400006e-001 2.22000003e-001
      2.19500005e-001 2.19099998e-001 2.17299998e-001 2.16900006e-001
      2.15900004e-001 2.14200005e-001 2.14499995e-001 2.14599997e-001
      2.12200001e-001 2.10099995e-001 2.09199995e-001 2.07699999e-001
      2.05799997e-001 2.04899997e-001 2.03199998e-001 2.01700002e-001
      2.00000003e-001 1.99300006e-001 1.98100001e-001 1.96999997e-001
      1.91599995e-001 1.78299993e-001 1.84900001e-001 1.85299993e-001
      1.84000000e-001 1.89099997e-001 1.90099999e-001 1.88199997e-001
      1.88800007e-001 1.87199995e-001 1.60099998e-001 1.85200006e-001
      1.84000000e-001 1.82300001e-001 1.75500005e-001 1.77800000e-001
      1.74899995e-001 1.73999995e-001</_>
    <_>
      2.87699997e-001 2.90800005e-001 2.92699993e-001 2.94900000e-001
      2.95199990e-001 2.96700001e-001 2.96099991e-001 2.96099991e-001
      2.94400007e-001 2.93199986e-001 2.91200012e-001 2.89099991e-001
      2.85200000e-001 2.83800006e-001 2.82299995e-001 2.81599998e-001
      2.80299991e-001 2.78100014e-001 2.79199988e-001 2.78600007e-001
      2.77399987e-001 2.77000010e-001 2.77200013e-001 2.81199992e-001
      2.78400004e-001 2.78800011e-001 2.77300000e-001 2.76699990e-001
      2.73999989e-001 2.70399988e-001 2.68900007e-001 2.68200010e-001
      2.66099989e-001 2.66099989e-001 2.64200002e-001 2.62400001e-001
      2.59299994e-001 2.57800013e-001 2.57600009e-001 2.56300002e-001
      2.53899992e-001 2.51599997e-001 2.47999996e-001 2.46800005e-001
      2.44700000e-001 2.43399993e-001 2.40999997e-001 2.38800004e-001
      2.38499999e-001 2.35799998e-001 2.34599993e-001 2.34300002e-001
      2.33899996e-001 2.28599995e-001 2.29800001e-001 2.27300003e-001
      2.26699993e-001 2.24999994e-001 2.24600002e-001 2.21900001e-001
      2.21200004e-001 2.19600007e-001 2.14399993e-001 2.15000004e-001
      2.14100003e-001 2.11899996e-001 2.08000004e-001 2.07599998e-001
      2.04799995e-001 2.03099996e-001</_>
    <_>
      1.65099993e-001 1.70100003e-001 1.65800005e-001 1.65099993e-001
      1.70599997e-001 1.64900005e-001 1.73299998e-001 1.64600000e-001
      1.65399998e-001 1.69699997e-001 1.68699995e-001 1.65000007e-001
      1.68799996e-001 1.68899998e-001 1.71000004e-001 1.69599995e-001
      1.68799996e-001 1.69699997e-001 1.67899996e-001 1.66899994e-001
      1.69699997e-001 1.65399998e-001 1.62499994e-001 1.66600004e-001
      1.65399998e-001 1.64000005e-001 1.64700001e-001 1.64499998e-001
      1.62699997e-001 1.60899997e-001 1.62499994e-001 1.61599994e-001
      1.59600005e-001 1.59999996e-001 1.59299999e-001 1.57000005e-001
      1.55699998e-001 1.56100005e-001 1.56800002e-001 1.55499995e-001
      1.56700000e-001 1.54699996e-001 1.52199998e-001 1.52999997e-001
      1.52300000e-001 1.51600003e-001 1.49599999e-001 1.50399998e-001
      1.51099995e-001 1.50199994e-001 1.49800003e-001 1.48499995e-001
      1.56499997e-001 1.60099998e-001 1.55100003e-001 1.52500004e-001
      1.52099997e-001 1.49000004e-001 1.48000002e-001 1.47799999e-001
      1.46200001e-001 1.45400003e-001 1.51099995e-001 1.43900007e-001
      1.42700002e-001 1.41900003e-001 1.41700000e-001 1.41100004e-001
      1.38600007e-001 1.38699993e-001</_>
    <_>
      2.28300005e-001 2.35699996e-001 2.44399995e-001 2.50999987e-001
      2.58899987e-001 2.68000007e-001 2.75700003e-001 2.83199996e-001
      2.90600002e-001 2.99199998e-001 3.04699987e-001 3.10699999e-001
      3.16000015e-001 3.19799989e-001 3.22899997e-001 3.26099992e-001
      3.27499986e-001 3.28799993e-001 3.30799997e-001 3.31800014e-001
      3.33499998e-001 3.35399985e-001 3.35099995e-001 3.39800000e-001
      3.41300011e-001 3.42299998e-001 3.43899995e-001 3.47099990e-001
      3.45400006e-001 3.43100011e-001 3.42799991e-001 3.43499988e-001
      3.39500010e-001 3.39399993e-001 3.39700013e-001 3.38800013e-001
      3.35900009e-001 3.35999995e-001 3.36299986e-001 3.35500002e-001
      3.35900009e-001 3.33499998e-001 3.29899997e-001 3.30300003e-001
      3.27300012e-001 3.26099992e-001 3.25300008e-001 3.23500007e-001
      3.24000001e-001 3.23900014e-001 3.23799998e-001 3.23199987e-001
      3.29699993e-001 3.32500011e-001 3.31099987e-001 3.26000005e-001
      3.26000005e-001 3.22600007e-001 3.22100013e-001 3.21900010e-001
      3.19799989e-001 3.19099993e-001 3.16700011e-001 3.14700007e-001
      3.13899994e-001 3.13199997e-001 3.13100010e-001 3.10499996e-001
      3.07099998e-001 3.08699995e-001</_>
    <_>
      3.54099989e-001 3.60100001e-001 3.63999993e-001 3.65399987e-001
      3.68999988e-001 3.66299987e-001 3.67100000e-001 3.66400003e-001
      3.66299987e-001 3.65099996e-001 3.61999989e-001 3.60500008e-001
      3.58799994e-001 3.56500000e-001 3.54900002e-001 3.53300005e-001
      3.51399988e-001 3.49000007e-001 3.50400001e-001 3.49500000e-001
      3.48300010e-001 3.49700004e-001 3.48399997e-001 3.55199993e-001
      3.53199989e-001 3.52100015e-001 3.51000011e-001 3.50499988e-001
      3.47900003e-001 3.44700009e-001 3.42099994e-001 3.40299994e-001
      3.38200003e-001 3.35799992e-001 3.34399998e-001 3.32100004e-001
      3.28299999e-001 3.27199996e-001 3.25800002e-001 3.24900001e-001
      3.23500007e-001 3.21099997e-001 3.15499991e-001 3.14799994e-001
      3.11199993e-001 3.09100002e-001 3.07399988e-001 3.03999990e-001
      3.05500001e-001 3.03299993e-001 3.03799987e-001 3.01200002e-001
      3.04699987e-001 3.09100002e-001 3.06499988e-001 2.99199998e-001
      2.98299998e-001 2.92299986e-001 2.90899992e-001 2.89200008e-001
      2.86500007e-001 2.82999992e-001 2.71699995e-001 2.79100001e-001
      2.75900006e-001 2.73699999e-001 2.72300005e-001 2.69300014e-001
      2.65500009e-001 2.66200006e-001</_>
    <_>
      3.09399992e-001 3.13899994e-001 3.16599995e-001 3.16900015e-001
      3.21000010e-001 3.19299996e-001 3.18599999e-001 3.17900002e-001
      3.15899998e-001 3.15400004e-001 3.10499996e-001 3.07300001e-001
      3.07999998e-001 3.05900007e-001 3.03999990e-001 3.01999986e-001
      3.03600013e-001 3.01699996e-001 2.99800009e-001 2.98400015e-001
      3.01899999e-001 3.00300002e-001 2.98000008e-001 3.04800004e-001
      3.02100003e-001 3.01899999e-001 3.00599992e-001 2.99600005e-001
      2.97399998e-001 2.94099987e-001 2.91500002e-001 2.93700010e-001
      2.89200008e-001 2.88700014e-001 2.86700010e-001 2.86300004e-001
      2.82599986e-001 2.81300008e-001 2.81399995e-001 2.79100001e-001
      2.78400004e-001 2.75700003e-001 2.73499995e-001 2.71299988e-001
      2.69699991e-001 2.67800003e-001 2.65799999e-001 2.62300014e-001
      2.63500005e-001 2.63099998e-001 2.61000007e-001 2.59499997e-001
      2.66400009e-001 2.75400013e-001 2.66900003e-001 2.64099985e-001
      2.63999999e-001 2.57299989e-001 2.54999995e-001 2.55699992e-001
      2.51700014e-001 2.48799995e-001 2.63599992e-001 2.43200004e-001
      2.42300004e-001 2.39999995e-001 2.42100000e-001 2.38199994e-001
      2.33899996e-001 2.33799994e-001</_></support_vectors>
  <decision_functions>
    <_>
      <sv_count>44</sv_count>
      <rho>3.6368637591373493e-001</rho>
      <alpha>
        6.2500000000000000e+001 6.2500000000000000e+001
        6.2500000000000000e+001 6.2500000000000000e+001
        6.2500000000000000e+001 6.8267523792068541e-001
        3.3644777994409329e+000 6.2500000000000000e+001
        6.2500000000000000e+001 6.2500000000000000e+001
        7.5216612732264041e+000 6.2500000000000000e+001
        6.2500000000000000e+001 6.2500000000000000e+001
        6.2500000000000000e+001 6.2500000000000000e+001
        6.2500000000000000e+001 6.9913673726002363e+000
        6.2500000000000000e+001 6.2500000000000000e+001
        1.6616650508102499e+001 6.2500000000000000e+001
        6.2500000000000000e+001 1.2064136324254420e+000
        -6.2500000000000000e+001 -6.2500000000000000e+001
        -6.2500000000000000e+001 -6.2500000000000000e+001
        -6.2500000000000000e+001 -6.2500000000000000e+001
        -6.2500000000000000e+001 -1.9003918047506506e+001
        -5.3639637718653283e+001 -6.2500000000000000e+001
        -6.2500000000000000e+001 -6.2500000000000000e+001
        -6.2500000000000000e+001 -6.2500000000000000e+001
        -6.2500000000000000e+001 -2.6239690057556395e+001
        -6.2500000000000000e+001 -6.2500000000000000e+001
        -6.2500000000000000e+001 -6.2500000000000000e+001</alpha>
      <index>
        0 1 2 3 4 5 6 7 8 9 10 11 12 13 14 15 16 17 18 19 20 21 22 23 24
        25 26 27 28 29 30 31 32 33 34 35 36 37 38 39 40 41 42 43</index></_></decision_functions></my_svm>
</opencv_storage>
